~o
<STREAMINFO> 1 39
<VECSIZE> 39<NULLD><MFCC_D_A_0><DIAGC>
~h "usiro"
<BEGINHMM>
<NUMSTATES> 5
<STATE> 2
<MEAN> 39
 -2.078885e+01 4.476299e+00 -2.775158e+00 -5.408221e+00 -3.728039e+00 -7.532461e+00 -4.679245e+00 -7.855401e+00 -6.461332e-02 -1.432558e+00 -1.067518e+00 -2.437409e+00 6.996089e+01 -6.663286e-01 2.624024e-01 -3.050945e-01 -2.108900e-01 -4.081597e-01 3.217564e-01 -1.192498e-01 -4.716305e-01 -1.709883e-02 -1.004063e-01 -9.510814e-02 -3.257170e-01 8.405816e-01 8.322707e-02 2.075585e-02 2.704918e-02 -1.332326e-02 -8.019257e-02 4.834559e-02 -1.743593e-02 -4.562879e-02 -8.775474e-02 -4.572307e-02 -7.622788e-02 -1.269050e-01 -3.052991e-01
<VARIANCE> 39
 1.453786e+02 1.815664e+01 6.395311e+01 5.458660e+01 3.076762e+01 1.023602e+02 4.373356e+01 3.137635e+01 3.908168e+01 2.306015e+01 1.366280e+01 2.850720e+01 1.455106e+01 5.721984e+00 1.797632e+00 3.429595e+00 3.174153e+00 4.042144e+00 4.629348e+00 6.297439e+00 3.892078e+00 4.257172e+00 2.847581e+00 1.677178e+00 3.193140e+00 5.523087e+00 6.819378e-01 3.766312e-01 4.765567e-01 3.200765e-01 6.693858e-01 7.563959e-01 1.201070e+00 6.354167e-01 7.398987e-01 5.160116e-01 3.672557e-01 6.083312e-01 9.498702e-01
<GCONST> 1.284641e+02
<STATE> 3
<MEAN> 39
 -1.031322e+01 -2.687542e-01 2.926113e+00 -1.682491e+01 -1.210992e+01 -1.259050e+01 -1.297231e+01 -1.406216e+01 -6.857785e+00 -6.845757e+00 -7.442543e+00 -1.015920e+01 7.384047e+01 1.468180e+00 -1.154897e+00 -3.401411e-01 -4.546044e-01 3.360894e-01 -4.339477e-01 -2.659508e-01 8.004242e-01 -4.588722e-01 -9.583276e-01 -5.360955e-01 -3.852259e-01 1.844868e-01 -2.935581e-01 -3.537545e-02 -3.941314e-01 2.268206e-01 5.541306e-01 3.052439e-01 2.469933e-01 3.224463e-01 3.216829e-01 -2.606208e-02 9.408614e-02 1.978401e-01 -5.240990e-02
<VARIANCE> 39
 2.500954e+01 2.445298e+01 2.596406e+01 4.833568e+01 1.595591e+01 2.756271e+01 1.112427e+01 3.597907e+01 1.961420e+01 3.280336e+01 3.200982e+01 1.809661e+01 2.909752e+00 3.495586e+00 1.781983e+00 4.647578e+00 4.819150e+00 5.626388e+00 4.519191e+00 3.279679e+00 3.073770e+00 2.347302e+00 6.242746e+00 6.697130e+00 2.995518e+00 3.984143e-01 5.557306e-01 3.994042e-01 3.604968e-01 9.285392e-01 6.561346e-01 9.307023e-01 6.464147e-01 4.752065e-01 4.704334e-01 1.295208e+00 1.182747e+00 3.873661e-01 8.012284e-02
<GCONST> 1.183776e+02
<STATE> 4
<MEAN> 39
 -3.018984e+00 -8.662496e+00 -1.269289e+01 -1.382671e+01 1.308878e+01 -3.116201e+00 -1.048791e+01 -7.067026e-01 -2.549249e+00 -7.811789e+00 -5.859544e+00 -9.150825e+00 6.505943e+01 -2.328500e-01 3.311298e-01 -2.480183e-01 8.122007e-01 7.097012e-01 7.754418e-01 4.296560e-01 1.864403e-01 4.313528e-01 1.115291e+00 4.072933e-01 3.278769e-01 -2.233433e+00 -1.627417e-01 1.098362e-01 3.133828e-01 1.198450e-01 -3.953283e-01 -8.296054e-02 1.079048e-01 -1.064756e-01 -9.282319e-02 1.626833e-01 7.379434e-02 5.290266e-02 -3.262701e-01
<VARIANCE> 39
 6.063548e+00 4.546328e+01 1.308425e+01 2.323185e+01 5.835529e+01 4.870517e+01 2.885449e+01 2.526129e+01 2.382914e+01 6.801254e+01 3.060091e+01 3.140162e+01 1.546338e+02 6.195738e-01 1.872651e+00 2.713181e+00 2.819149e+00 8.632033e+00 2.167440e+00 1.755928e+00 1.926038e+00 1.881333e+00 2.668256e+00 2.367008e+00 2.258718e+00 4.869077e+00 9.470465e-02 2.731515e-01 4.157408e-01 4.459769e-01 6.546823e-01 2.705302e-01 3.398048e-01 3.001140e-01 3.156540e-01 6.320686e-01 6.133205e-01 3.502452e-01 3.899914e-01
<GCONST> 1.146148e+02
<TRANSP> 5
 0.000000e+00 1.000000e+00 0.000000e+00 0.000000e+00 0.000000e+00
 0.000000e+00 9.577465e-01 4.225352e-02 0.000000e+00 0.000000e+00
 0.000000e+00 0.000000e+00 9.230769e-01 7.692308e-02 0.000000e+00
 0.000000e+00 0.000000e+00 0.000000e+00 9.333333e-01 6.666666e-02
 0.000000e+00 0.000000e+00 0.000000e+00 0.000000e+00 0.000000e+00
<ENDHMM>
