~o
<STREAMINFO> 1 39
<VECSIZE> 39<NULLD><MFCC_D_A_0><DIAGC>
~h "mae"
<BEGINHMM>
<NUMSTATES> 5
<STATE> 2
<MEAN> 39
 1.179356e-01 -5.713857e+00 -2.183428e-01 -6.181222e+00 8.461220e-01 -1.319270e+01 -1.238110e+01 -8.295169e+00 -8.012419e+00 -1.437320e+01 -8.802671e+00 -1.171209e+01 6.951437e+01 -1.597451e-01 -1.713081e+00 -1.938388e+00 -1.514677e+00 7.092202e-01 3.729328e-03 -1.617893e-01 7.341391e-01 -6.034011e-01 -1.629190e+00 8.699293e-01 -1.565737e+00 3.000665e+00 -5.164534e-01 -2.151802e-01 -2.398009e-02 2.985245e-01 8.622103e-02 2.912496e-02 4.544786e-01 6.401829e-02 1.483628e-01 1.727141e-01 4.851370e-01 3.870669e-01 -5.859725e-01
<VARIANCE> 39
 1.772014e+01 4.282420e+01 7.942995e+01 4.224609e+01 4.421948e+01 2.322130e+01 3.983767e+01 2.266582e+01 1.422976e+01 9.863788e+01 3.493108e+01 3.328214e+01 5.133672e+01 3.206436e+00 2.495782e+00 4.270215e+00 4.265807e+00 2.079663e+00 1.301601e+00 2.790776e+00 2.865310e+00 3.534211e+00 9.843446e+00 4.359529e+00 2.472051e+00 2.630231e+00 4.468527e-01 7.180781e-01 1.235366e+00 8.355438e-01 4.437455e-01 4.115504e-01 3.200503e-01 8.281933e-01 8.338603e-01 1.870537e+00 7.700766e-01 2.924319e-01 2.528678e-01
<GCONST> 1.268073e+02
<STATE> 3
<MEAN> 39
 -9.699912e+00 -1.301519e+01 -6.394644e+00 -1.042445e+01 2.442028e-01 -1.311506e+01 -6.313886e+00 -1.459012e+01 -1.597582e+01 -1.372677e+01 -5.561468e+00 -9.696893e+00 7.688425e+01 -3.221519e-01 3.422779e-01 4.654327e-01 -5.034394e-01 -6.535714e-01 5.619470e-01 4.026828e-01 -6.973405e-01 -2.084782e-01 5.658020e-01 -7.355438e-01 -8.232799e-02 -6.151195e-02 7.518460e-02 1.340995e-01 6.098176e-02 -9.702477e-02 -2.700183e-02 1.054579e-01 -1.612925e-02 8.500634e-02 2.250617e-01 9.201063e-02 -6.608535e-02 -8.035690e-02 -6.795362e-02
<VARIANCE> 39
 1.932469e+01 1.773505e+01 1.809652e+01 1.938313e+01 3.191246e+01 5.596978e+01 9.200355e+00 4.710104e+01 1.605719e+01 9.594018e+01 1.941536e+01 3.251190e+01 4.676252e+00 3.357511e-01 6.388017e-01 7.147727e-01 1.014097e+00 1.207001e+00 7.034001e-01 9.685020e-01 1.841487e+00 3.287483e+00 2.074277e+00 1.175209e+00 1.901803e+00 4.776139e-02 3.748111e-02 8.382674e-02 1.341265e-01 1.592349e-01 1.834960e-01 6.895173e-02 1.955898e-01 2.326088e-01 4.136419e-01 3.890067e-01 3.534482e-01 2.577778e-01 1.236062e-02
<GCONST> 8.481449e+01
<STATE> 4
<MEAN> 39
 -7.914190e+00 -7.795299e+00 5.016079e+00 -1.545127e+01 -3.445880e+00 2.889183e+00 2.632244e+00 -7.935515e+00 -6.379703e+00 -8.004785e+00 -8.469374e+00 -1.360200e+01 6.787883e+01 1.148281e-02 3.030491e-01 3.125393e-01 4.865759e-01 2.049664e-01 8.125610e-01 5.111411e-01 1.021740e+00 5.240064e-01 7.157267e-01 5.313668e-01 5.245916e-01 -2.312578e+00 -7.288451e-02 8.709276e-02 -8.690926e-02 2.775167e-01 -1.102959e-02 -1.446332e-01 -8.566467e-02 -3.664143e-02 -7.281052e-02 -7.076320e-02 -4.237477e-02 1.258060e-01 -2.737947e-01
<VARIANCE> 39
 7.601937e+00 2.594279e+01 3.226547e+01 2.657814e+01 1.771119e+01 5.595304e+01 2.696834e+01 3.254210e+01 1.714663e+01 4.332772e+01 2.285559e+01 3.789907e+01 1.086144e+02 3.945626e-01 3.078530e+00 1.856040e+00 3.002173e+00 1.349952e+00 2.253399e+00 1.441897e+00 1.113662e+00 1.739026e+00 1.986330e+00 2.519545e+00 6.376400e-01 5.243266e+00 8.970753e-02 4.501896e-01 2.081048e-01 4.520126e-01 2.150386e-01 3.976738e-01 2.730227e-01 2.067207e-01 3.218410e-01 4.569525e-01 5.349724e-01 2.588255e-01 5.455871e-01
<GCONST> 1.069165e+02
<TRANSP> 5
 0.000000e+00 1.000000e+00 0.000000e+00 0.000000e+00 0.000000e+00
 0.000000e+00 8.695824e-01 1.304176e-01 0.000000e+00 0.000000e+00
 0.000000e+00 0.000000e+00 9.333412e-01 6.665879e-02 0.000000e+00
 0.000000e+00 0.000000e+00 0.000000e+00 9.210353e-01 7.896471e-02
 0.000000e+00 0.000000e+00 0.000000e+00 0.000000e+00 0.000000e+00
<ENDHMM>
