~o
<STREAMINFO> 1 39
<VECSIZE> 39<NULLD><MFCC_D_A_0><DIAGC>
~h "hidari"
<BEGINHMM>
<NUMSTATES> 5
<STATE> 2
<MEAN> 39
 -1.409437e+01 3.589369e+00 3.052636e+00 -1.317748e+01 -5.395414e+00 -6.508086e+00 -8.270884e+00 -7.166695e+00 -1.935635e+00 -4.586579e+00 -3.600613e-01 -6.074854e+00 6.580777e+01 8.150455e-01 -4.837838e-01 -3.078462e-01 -3.867062e-01 -5.711160e-01 -4.136253e-01 1.681037e-01 -4.637722e-01 -6.179490e-01 -3.315913e-01 -5.301929e-01 -5.839913e-01 1.552594e+00 1.577635e-01 -1.675901e-01 -2.834583e-04 5.154714e-02 3.519917e-02 8.673218e-02 9.715640e-02 -1.621203e-01 -2.056145e-01 -1.346626e-01 -7.430349e-02 -3.497581e-02 -2.249496e-01
<VARIANCE> 39
 1.267351e+02 2.740688e+01 6.531861e+01 5.049067e+01 3.901784e+01 3.290522e+01 6.388296e+01 5.742208e+01 3.874521e+01 3.961703e+01 3.153275e+01 3.002083e+01 6.043875e+01 7.400558e+00 5.090930e+00 5.879890e+00 6.322917e+00 2.781191e+00 4.058756e+00 8.681430e+00 5.682650e+00 3.773713e+00 4.657453e+00 2.430379e+00 3.353110e+00 1.167950e+01 1.140717e+00 8.810620e-01 8.680362e-01 1.183621e+00 6.835246e-01 8.025083e-01 1.583402e+00 1.065480e+00 8.490572e-01 8.631877e-01 5.046441e-01 6.192386e-01 2.210956e+00
<GCONST> 1.418506e+02
<STATE> 3
<MEAN> 39
 -8.383095e+00 -1.149686e+01 -2.973746e+00 -1.269876e+01 -5.712226e+00 -6.414793e+00 -2.176813e+00 -1.563572e+01 -1.244944e+01 -1.071275e+01 -4.313475e+00 -9.684507e+00 7.740306e+01 -2.545573e-01 5.191042e-01 5.013517e-01 -1.316802e-01 -5.998167e-03 1.059197e-03 -6.815354e-01 -3.655913e-01 2.902676e-01 -2.066000e-01 -7.978618e-02 2.305857e-01 -4.782536e-01 -3.592836e-02 4.941882e-01 1.988078e-01 -4.398590e-03 -6.300523e-02 -1.927026e-01 -2.450029e-01 1.863952e-01 2.780917e-01 1.276605e-01 2.540023e-03 1.048272e-01 -2.106909e-01
<VARIANCE> 39
 1.201791e+01 5.611250e+01 1.392031e+01 2.599291e+01 3.957799e+01 4.669295e+01 2.692176e+01 1.417765e+01 2.146421e+01 7.799211e+01 1.552871e+01 4.352064e+01 8.111785e+00 3.361334e-01 4.177186e+00 1.225336e+00 3.900553e+00 4.813377e+00 3.798525e+00 2.519204e+00 2.226050e+00 3.104716e+00 6.079953e+00 1.487599e+00 2.181886e+00 7.037703e-01 9.723099e-02 9.818184e-02 1.123400e-01 8.455848e-01 8.110865e-01 7.919959e-01 5.910833e-01 3.304093e-01 3.703794e-01 8.413491e-01 3.446818e-01 4.518423e-01 1.795547e-01
<GCONST> 1.100546e+02
<STATE> 4
<MEAN> 39
 -9.644798e+00 6.193384e+00 8.882693e+00 -2.237906e+01 -4.091433e+00 -1.143932e+01 -1.294408e+01 -9.457271e+00 -1.565807e+00 -1.057485e+01 -9.901987e-01 -4.786544e+00 6.392541e+01 -2.135026e-02 4.381036e-01 1.918869e-01 5.245120e-01 5.550376e-01 1.728060e-01 -3.462556e-01 7.123748e-01 4.519954e-01 3.825982e-01 6.521940e-01 6.952332e-01 -2.071183e+00 -3.068724e-02 -2.703179e-01 -2.386419e-01 4.019720e-01 -1.815797e-02 2.232024e-01 2.799567e-01 3.438474e-02 -5.875064e-02 1.778719e-01 1.454001e-02 5.500424e-03 -2.130291e-01
<VARIANCE> 39
 5.655480e+00 2.295677e+01 6.102594e+01 8.290024e+01 2.069318e+01 7.899457e+01 2.817507e+01 2.285566e+01 2.842515e+01 1.912342e+01 3.846574e+01 3.016059e+01 9.037624e+01 3.080661e-01 3.307338e+00 3.667658e+00 6.760015e+00 1.960300e+00 2.923277e+00 2.684114e+00 1.042746e+00 1.372877e+00 2.572879e+00 2.211643e+00 1.970666e+00 5.067815e+00 1.043804e-01 5.259689e-01 4.444949e-01 4.888256e-01 4.970528e-01 4.386000e-01 5.037035e-01 2.209347e-01 2.410592e-01 3.387405e-01 3.905387e-01 3.014195e-01 4.854336e-01
<GCONST> 1.136438e+02
<TRANSP> 5
 0.000000e+00 1.000000e+00 0.000000e+00 0.000000e+00 0.000000e+00
 0.000000e+00 9.482774e-01 5.172264e-02 0.000000e+00 0.000000e+00
 0.000000e+00 0.000000e+00 9.213937e-01 7.860635e-02 0.000000e+00
 0.000000e+00 0.000000e+00 0.000000e+00 9.330845e-01 6.691546e-02
 0.000000e+00 0.000000e+00 0.000000e+00 0.000000e+00 0.000000e+00
<ENDHMM>
