~o
<STREAMINFO> 1 39
<VECSIZE> 39<NULLD><MFCC_D_A_0><DIAGC>
~h "sil"
<BEGINHMM>
<NUMSTATES> 5
<STATE> 2
<MEAN> 39
 -1.219462e+01 1.854419e-01 -1.077842e+00 -4.504859e-01 -2.031606e-01 -7.464792e-01 -1.618460e+00 -6.186105e-01 -5.392588e-03 9.346621e-03 -3.124968e-01 -6.702864e-01 1.897435e+01 4.518572e-01 -5.663932e-02 -1.375725e-01 5.375846e-01 -2.213672e-02 1.134668e-01 4.780581e-01 2.445859e-01 1.199987e-01 1.986441e-01 2.382091e-02 1.814300e-01 -2.455253e+00 1.100679e-01 -3.089591e-02 6.833416e-02 -1.952463e-01 4.293554e-02 -3.880208e-02 -7.778264e-02 -3.413235e-02 -2.133448e-02 -4.101385e-02 1.837147e-02 -2.732017e-02 2.154665e-01
<VARIANCE> 39
 4.839516e+01 1.210783e+01 1.784722e+01 1.532746e+01 1.152756e+01 1.300344e+01 2.193515e+01 1.922434e+01 1.077466e+01 1.309327e+01 1.255092e+01 1.503741e+01 2.062346e+02 4.995401e+00 1.462085e+00 2.424438e+00 2.209802e+00 1.347272e+00 1.465731e+00 3.037195e+00 1.856054e+00 1.275621e+00 1.348545e+00 1.227069e+00 1.704508e+00 6.581780e+00 5.835848e-01 2.151825e-01 3.091674e-01 3.018490e-01 2.718812e-01 2.450898e-01 4.164353e-01 3.209287e-01 2.324611e-01 2.662300e-01 2.299063e-01 3.271448e-01 1.274215e+00
<GCONST> 1.051810e+02
<STATE> 3
<MEAN> 39
 0.000000e+00 0.000000e+00 0.000000e+00 0.000000e+00 0.000000e+00 0.000000e+00 0.000000e+00 0.000000e+00 0.000000e+00 0.000000e+00 0.000000e+00 0.000000e+00 0.000000e+00 0.000000e+00 0.000000e+00 0.000000e+00 0.000000e+00 0.000000e+00 0.000000e+00 0.000000e+00 0.000000e+00 0.000000e+00 0.000000e+00 0.000000e+00 0.000000e+00 0.000000e+00 -6.896755e-02 1.607140e-02 -6.039642e-03 3.506508e-03 -4.730746e-03 1.594583e-03 -3.790655e-03 8.162056e-04 -3.611081e-03 -9.386754e-04 3.380364e-03 -2.108213e-05 5.258813e-02
<VARIANCE> 39
 1.000000e-06 1.000000e-06 1.000000e-06 1.000000e-06 1.000000e-06 1.000000e-06 1.000000e-06 1.000000e-06 1.000000e-06 1.000000e-06 1.000000e-06 1.000000e-06 1.000000e-06 1.000000e-06 1.000000e-06 1.000000e-06 1.000000e-06 1.000000e-06 1.000000e-06 1.000000e-06 1.000000e-06 1.000000e-06 1.000000e-06 1.000000e-06 1.000000e-06 1.000000e-06 5.557525e-02 6.456361e-03 1.530449e-03 2.926875e-03 1.789526e-03 1.392545e-03 7.813797e-04 3.271537e-03 1.489678e-03 1.139359e-03 1.181595e-03 5.659448e-04 3.688504e-02
<GCONST> -3.643585e+02
<STATE> 4
<MEAN> 39
 -1.030066e+01 1.175719e-01 5.239959e-01 3.859408e-01 -1.385348e-01 -2.452006e+00 -1.379766e+00 -1.655408e+00 -8.967656e-01 -1.403622e+00 2.312032e-01 -1.214411e-01 2.133494e+01 -4.826379e-01 3.268365e-02 3.296379e-01 -2.367934e-01 -2.317962e-02 -7.591573e-01 -5.560784e-01 -4.012935e-01 -2.209351e-01 -3.858326e-01 -2.352367e-01 -2.023844e-01 3.909858e+00 1.799364e-01 -4.831965e-02 1.549033e-02 -1.295181e-01 -2.241583e-02 -9.666423e-02 -1.262520e-01 -2.822137e-02 -5.283909e-02 -5.132440e-02 -7.520387e-02 -9.862177e-02 3.608701e-01
<VARIANCE> 39
 5.454631e+01 1.265144e+01 1.589836e+01 2.121964e+01 9.618305e+00 3.376377e+01 1.788102e+01 1.736568e+01 1.336536e+01 1.535192e+01 1.358402e+01 1.014935e+01 3.401871e+02 7.720961e+00 1.430165e+00 1.639154e+00 2.525082e+00 1.086228e+00 2.312577e+00 1.943139e+00 2.214097e+00 1.979973e+00 1.491932e+00 2.205384e+00 1.574061e+00 1.176805e+01 9.974556e-01 2.955624e-01 2.853605e-01 4.598090e-01 2.280304e-01 3.379272e-01 2.896839e-01 3.830098e-01 3.494996e-01 2.532928e-01 3.804993e-01 2.541294e-01 1.818628e+00
<GCONST> 1.104549e+02
<TRANSP> 5
 0.000000e+00 1.000000e+00 0.000000e+00 0.000000e+00 0.000000e+00
 0.000000e+00 8.918903e-01 1.081096e-01 0.000000e+00 0.000000e+00
 0.000000e+00 0.000000e+00 9.423070e-01 5.769297e-02 0.000000e+00
 0.000000e+00 0.000000e+00 0.000000e+00 8.628584e-01 1.371417e-01
 0.000000e+00 0.000000e+00 0.000000e+00 0.000000e+00 0.000000e+00
<ENDHMM>
