~o
<STREAMINFO> 1 39
<VECSIZE> 39<NULLD><MFCC_D_A_0><DIAGC>
~h "usiro"
<BEGINHMM>
<NUMSTATES> 5
<STATE> 2
<MEAN> 39
 -2.078879e+01 4.476379e+00 -2.775051e+00 -5.408264e+00 -3.728239e+00 -7.532365e+00 -4.679479e+00 -7.855784e+00 -6.472863e-02 -1.432618e+00 -1.067577e+00 -2.437490e+00 6.996100e+01 -6.662122e-01 2.623743e-01 -3.050334e-01 -2.109745e-01 -4.082077e-01 3.216772e-01 -1.193030e-01 -4.716734e-01 -1.711761e-02 -1.004414e-01 -9.519649e-02 -3.257739e-01 8.405958e-01 8.321976e-02 2.073966e-02 2.705347e-02 -1.332445e-02 -8.016691e-02 4.834561e-02 -1.740828e-02 -4.560855e-02 -8.774514e-02 -4.572254e-02 -7.623535e-02 -1.269085e-01 -3.053011e-01
<VARIANCE> 39
 1.453752e+02 1.815642e+01 6.395352e+01 5.458629e+01 3.077012e+01 1.023557e+02 4.373663e+01 3.137815e+01 3.908188e+01 2.306007e+01 1.366290e+01 2.850693e+01 1.455124e+01 5.722575e+00 1.797675e+00 3.429796e+00 3.174290e+00 4.042229e+00 4.629429e+00 6.297669e+00 3.892095e+00 4.257190e+00 2.847576e+00 1.677533e+00 3.193259e+00 5.523033e+00 6.819394e-01 3.766412e-01 4.765616e-01 3.200781e-01 6.694201e-01 7.563864e-01 1.201106e+00 6.354249e-01 7.399009e-01 5.159971e-01 3.672521e-01 6.083322e-01 9.498642e-01
<GCONST> 1.284648e+02
<STATE> 3
<MEAN> 39
 -1.031202e+01 -2.702861e-01 2.924338e+00 -1.682461e+01 -1.210703e+01 -1.259083e+01 -1.297229e+01 -1.406090e+01 -6.858146e+00 -6.849858e+00 -7.443354e+00 -1.015886e+01 7.384105e+01 1.467772e+00 -1.154590e+00 -3.408631e-01 -4.540812e-01 3.370434e-01 -4.335934e-01 -2.658513e-01 8.003241e-01 -4.583883e-01 -9.581183e-01 -5.361496e-01 -3.851685e-01 1.844319e-01 -2.934165e-01 -3.537248e-02 -3.940976e-01 2.267724e-01 5.538678e-01 3.053211e-01 2.470720e-01 3.222964e-01 3.217512e-01 -2.562327e-02 9.421278e-02 1.976297e-01 -5.237316e-02
<VARIANCE> 39
 2.500434e+01 2.445479e+01 2.597938e+01 4.832472e+01 1.598767e+01 2.755877e+01 1.112152e+01 3.597994e+01 1.961019e+01 3.287497e+01 3.200713e+01 1.809274e+01 2.910899e+00 3.494912e+00 1.782038e+00 4.648209e+00 4.818638e+00 5.628300e+00 4.518613e+00 3.278633e+00 3.073192e+00 2.347975e+00 6.241882e+00 6.695611e+00 2.994721e+00 3.982987e-01 5.557301e-01 3.993081e-01 3.604482e-01 9.283861e-01 6.562436e-01 9.305784e-01 6.463265e-01 4.751976e-01 4.703971e-01 1.295924e+00 1.182618e+00 3.875132e-01 8.011395e-02
<GCONST> 1.183804e+02
<STATE> 4
<MEAN> 39
 -3.018264e+00 -8.662613e+00 -1.269375e+01 -1.382626e+01 1.309087e+01 -3.113950e+00 -1.048723e+01 -7.055051e-01 -2.548238e+00 -7.808566e+00 -5.858626e+00 -9.151158e+00 6.505715e+01 -2.329211e-01 3.311367e-01 -2.474769e-01 8.120869e-01 7.090299e-01 7.754329e-01 4.297921e-01 1.865240e-01 4.311161e-01 1.115488e+00 4.076286e-01 3.280391e-01 -2.233859e+00 -1.628408e-01 1.098832e-01 3.134535e-01 1.198732e-01 -3.952868e-01 -8.308802e-02 1.077788e-01 -1.064404e-01 -9.295651e-02 1.623356e-01 7.369838e-02 5.307307e-02 -3.263450e-01
<VARIANCE> 39
 6.062046e+00 4.546930e+01 1.308200e+01 2.323525e+01 5.834101e+01 4.869028e+01 2.885763e+01 2.525509e+01 2.382875e+01 6.796397e+01 3.060135e+01 3.140679e+01 1.546388e+02 6.196643e-01 1.872940e+00 2.712087e+00 2.819622e+00 8.631106e+00 2.167826e+00 1.756142e+00 1.926288e+00 1.881394e+00 2.668457e+00 2.366840e+00 2.258900e+00 4.868872e+00 9.466689e-02 2.731834e-01 4.157746e-01 4.460556e-01 6.547895e-01 2.704861e-01 3.397552e-01 3.001603e-01 3.156099e-01 6.315119e-01 6.133721e-01 3.501502e-01 3.900245e-01
<GCONST> 1.146128e+02
<TRANSP> 5
 0.000000e+00 1.000000e+00 0.000000e+00 0.000000e+00 0.000000e+00
 0.000000e+00 9.577472e-01 4.225282e-02 0.000000e+00 0.000000e+00
 0.000000e+00 0.000000e+00 9.230897e-01 7.691032e-02 0.000000e+00
 0.000000e+00 0.000000e+00 0.000000e+00 9.333217e-01 6.667827e-02
 0.000000e+00 0.000000e+00 0.000000e+00 0.000000e+00 0.000000e+00
<ENDHMM>
