~o
<STREAMINFO> 1 39
<VECSIZE> 39<NULLD><MFCC_D_A_0><DIAGC>
~h "migi"
<BEGINHMM>
<NUMSTATES> 5
<STATE> 2
<MEAN> 39
 -3.934820e+00 4.961117e+00 7.873741e+00 -1.183378e+01 3.824829e-01 -7.335556e+00 -2.108734e+01 -9.480124e+00 -7.235006e+00 -1.159170e+01 -8.051313e+00 -7.438720e+00 6.876322e+01 -2.415776e-01 5.506031e-01 3.629535e-02 -6.257951e-01 1.102239e-02 -2.135461e-01 -5.298793e-01 -5.490001e-01 1.848773e-02 -1.157081e-01 -1.620026e-01 -3.228747e-01 1.449497e+00 -3.103753e-01 -1.696373e-02 -1.443070e-01 1.886734e-01 6.210261e-02 1.149014e-01 2.573675e-01 1.573223e-01 2.205157e-01 1.751549e-01 2.086104e-01 1.033323e-01 -6.968558e-01
<VARIANCE> 39
 2.705706e+01 3.833189e+01 1.568726e+01 1.172736e+02 3.157041e+01 1.007872e+01 7.890150e+01 5.594842e+01 2.050108e+01 2.523850e+01 5.461101e+00 2.309751e+01 5.726431e+01 4.420177e+00 2.948710e+00 1.989789e+00 1.226906e+01 1.901719e+00 1.087261e+00 8.158504e+00 3.597692e+00 3.907003e+00 2.889206e+00 1.617614e+00 2.830508e+00 1.210510e+01 8.942561e-01 4.593353e-01 2.042745e-01 1.314415e+00 5.047361e-01 2.550538e-01 6.621429e-01 8.775783e-01 9.414115e-01 4.550373e-01 2.592617e-01 5.236841e-01 3.248698e-01
<GCONST> 1.229688e+02
<STATE> 3
<MEAN> 39
 -1.531006e+01 8.591548e+00 3.359638e+00 -6.419392e+00 1.221674e+00 -8.701325e+00 -1.210071e+01 -8.760548e+00 -4.487266e+00 -8.243214e+00 -3.720222e+00 -1.044389e+01 6.373919e+01 -3.076495e-01 4.317435e-01 2.442195e-01 -1.288953e+00 -3.192111e-01 -4.825022e-01 -3.399812e-01 -1.965758e-01 -3.718721e-01 -4.089514e-01 -3.381884e-01 -3.928542e-02 6.824735e-01 3.532653e-01 6.860422e-02 2.171027e-01 -6.627809e-01 -2.067596e-01 -1.017470e-01 -4.311021e-01 -2.965210e-01 -1.913026e-01 -3.670980e-01 -1.788094e-01 1.573744e-01 3.819038e-01
<VARIANCE> 39
 4.881619e+01 4.044806e+01 2.091675e+01 2.568978e+01 1.129362e+01 2.638224e+01 2.843631e+01 1.895399e+01 3.276436e+01 2.554613e+01 3.352062e+01 6.243429e+00 5.718983e+01 1.155075e+01 6.555297e+00 3.596642e+00 4.253997e+00 2.153920e+00 2.976202e+00 5.859956e+00 5.844161e+00 4.290353e+00 4.642894e+00 8.273548e+00 7.385474e-01 1.102271e+01 2.081301e+00 1.517144e+00 7.863088e-01 5.710634e-01 2.788709e-01 6.048015e-01 9.210045e-01 9.242679e-01 1.224205e+00 6.030404e-01 1.730899e+00 2.301583e-01 2.040503e+00
<GCONST> 1.312041e+02
<STATE> 4
<MEAN> 39
 -8.445246e+00 8.745169e+00 1.355715e+01 -1.960019e+01 -2.172803e+00 -1.059681e+01 -1.977000e+01 -1.106781e+01 -6.082528e+00 -1.090337e+01 -2.850464e+00 -4.696899e+00 6.386497e+01 -3.362171e-02 -6.097490e-01 8.785712e-02 1.111673e+00 2.314094e-01 8.450698e-01 6.371696e-01 7.125833e-01 6.411473e-01 8.112552e-01 8.755927e-01 7.873068e-01 -2.835219e+00 -3.656113e-01 -2.288792e-01 -4.271551e-01 4.912110e-01 1.176525e-01 1.291938e-01 5.135542e-01 3.190966e-01 1.500016e-01 2.865656e-01 5.249986e-02 -8.368689e-02 -4.554800e-01
<VARIANCE> 39
 3.838024e+00 1.053810e+01 2.957334e+01 5.621189e+01 5.829618e+00 1.600788e+01 9.174448e+00 3.794895e+01 3.435219e+01 2.947787e+01 4.924862e+01 2.038830e+01 1.533291e+02 1.606894e+00 2.394313e+00 6.078892e+00 8.091013e+00 6.099988e-01 1.674804e+00 4.535535e+00 2.236221e+00 2.779281e+00 3.197052e+00 1.519499e+00 1.215459e+00 1.034246e+01 3.096116e-01 6.347726e-01 4.681166e-01 6.810027e-01 2.162767e-01 2.117784e-01 6.059105e-01 5.236987e-01 3.965752e-01 7.172048e-01 4.392149e-01 2.671483e-01 7.406266e-01
<GCONST> 1.140602e+02
<TRANSP> 5
 0.000000e+00 1.000000e+00 0.000000e+00 0.000000e+00 0.000000e+00
 0.000000e+00 9.347858e-01 6.521414e-02 0.000000e+00 0.000000e+00
 0.000000e+00 0.000000e+00 8.928347e-01 1.071653e-01 0.000000e+00
 0.000000e+00 0.000000e+00 0.000000e+00 9.230835e-01 7.691649e-02
 0.000000e+00 0.000000e+00 0.000000e+00 0.000000e+00 0.000000e+00
<ENDHMM>
