~o
<STREAMINFO> 1 39
<VECSIZE> 39<NULLD><MFCC_D_A_0><DIAGC>
~h "hidari"
<BEGINHMM>
<NUMSTATES> 5
<STATE> 2
<MEAN> 39
 -1.430017e+01 3.708936e+00 3.084805e+00 -1.318757e+01 -5.231213e+00 -6.563752e+00 -8.475887e+00 -7.034148e+00 -1.866932e+00 -4.559739e+00 -3.336454e-01 -5.900571e+00 6.560442e+01 8.107023e-01 -4.614364e-01 -2.901546e-01 -3.468196e-01 -5.575081e-01 -4.106265e-01 1.668554e-01 -3.855336e-01 -5.850778e-01 -2.541747e-01 -4.863730e-01 -5.257464e-01 1.565670e+00 1.601935e-01 -1.811824e-01 2.514266e-04 3.525781e-02 1.460777e-02 7.679825e-02 1.141823e-01 -1.583123e-01 -2.027830e-01 -1.232858e-01 -7.632259e-02 -5.028863e-02 -1.906180e-01
<VARIANCE> 39
 1.265085e+02 2.705775e+01 6.640224e+01 5.137249e+01 3.813739e+01 3.330489e+01 6.256785e+01 5.741130e+01 3.915160e+01 4.027070e+01 3.204610e+01 2.878677e+01 5.910909e+01 7.529612e+00 5.151078e+00 5.964984e+00 6.341561e+00 2.817986e+00 4.129126e+00 8.833807e+00 5.427607e+00 3.777086e+00 4.392378e+00 2.361297e+00 3.214674e+00 1.187482e+01 1.160442e+00 8.858870e-01 8.832563e-01 1.189059e+00 6.709204e-01 8.109358e-01 1.594332e+00 1.083285e+00 8.635361e-01 8.708697e-01 5.132728e-01 6.165624e-01 2.181536e+00
<GCONST> 1.418376e+02
<STATE> 3
<MEAN> 39
 -8.235166e+00 -1.133658e+01 -2.893023e+00 -1.271041e+01 -5.939972e+00 -6.364855e+00 -2.005275e+00 -1.562998e+01 -1.231218e+01 -1.057773e+01 -4.252234e+00 -9.838850e+00 7.743583e+01 -2.183861e-01 4.504283e-01 4.482709e-01 -1.961912e-01 -5.355088e-02 -1.447771e-02 -6.516197e-01 -4.835533e-01 2.139973e-01 -3.273102e-01 -1.594595e-01 1.135369e-01 -4.428260e-01 -3.504423e-02 4.986914e-01 1.917129e-01 2.472057e-02 -2.774885e-02 -1.731562e-01 -2.641661e-01 1.749891e-01 2.634819e-01 1.065435e-01 2.557500e-03 1.219629e-01 -2.637457e-01
<VARIANCE> 39
 1.264717e+01 5.601440e+01 1.389806e+01 2.523754e+01 4.073423e+01 4.556101e+01 2.692581e+01 1.379201e+01 2.186321e+01 7.677779e+01 1.534559e+01 4.357750e+01 7.674435e+00 3.702008e-01 4.192096e+00 1.271478e+00 3.976586e+00 4.715528e+00 3.725789e+00 2.472925e+00 2.694994e+00 3.226030e+00 6.447673e+00 1.668644e+00 2.520407e+00 7.287831e-01 9.515601e-02 9.534041e-02 1.107034e-01 8.468493e-01 8.295962e-01 7.918239e-01 5.860510e-01 3.289325e-01 3.720485e-01 8.422963e-01 3.370909e-01 4.550163e-01 2.708854e-01
<GCONST> 1.110133e+02
<STATE> 4
<MEAN> 39
 -9.635336e+00 6.172472e+00 8.860979e+00 -2.233230e+01 -4.100821e+00 -1.139692e+01 -1.292870e+01 -9.464431e+00 -1.578149e+00 -1.058971e+01 -1.001158e+00 -4.811393e+00 6.394663e+01 -2.425424e-02 4.473015e-01 1.986224e-01 5.217478e-01 5.643312e-01 1.725734e-01 -3.529367e-01 7.093305e-01 4.556191e-01 3.842164e-01 6.529943e-01 7.030380e-01 -2.067296e+00 -3.024186e-02 -2.689068e-01 -2.359777e-01 3.971169e-01 -2.060531e-02 2.235301e-01 2.806561e-01 3.224710e-02 -5.921077e-02 1.757329e-01 1.532110e-02 7.299694e-03 -2.108434e-01
<VARIANCE> 39
 5.669458e+00 2.299673e+01 6.092990e+01 8.333922e+01 2.067541e+01 7.935851e+01 2.813430e+01 2.281149e+01 2.836815e+01 1.911564e+01 3.835674e+01 3.021298e+01 9.016122e+01 3.097515e-01 3.317903e+00 3.666031e+00 6.737981e+00 1.976638e+00 2.913334e+00 2.689873e+00 1.042302e+00 1.371513e+00 2.572735e+00 2.203886e+00 1.990347e+00 5.053239e+00 1.040519e-01 5.249127e-01 4.449503e-01 4.943530e-01 4.992364e-01 4.371060e-01 5.021273e-01 2.215225e-01 2.402600e-01 3.392815e-01 3.892682e-01 3.011591e-01 4.849381e-01
<GCONST> 1.136610e+02
<TRANSP> 5
 0.000000e+00 1.000000e+00 0.000000e+00 0.000000e+00 0.000000e+00
 0.000000e+00 9.473684e-01 5.263158e-02 0.000000e+00 0.000000e+00
 0.000000e+00 0.000000e+00 9.230769e-01 7.692308e-02 0.000000e+00
 0.000000e+00 0.000000e+00 0.000000e+00 9.333333e-01 6.666666e-02
 0.000000e+00 0.000000e+00 0.000000e+00 0.000000e+00 0.000000e+00
<ENDHMM>
