~o
<STREAMINFO> 1 39
<VECSIZE> 39<NULLD><MFCC_D_A_0><DIAGC>
~h "sil"
<BEGINHMM>
<NUMSTATES> 5
<STATE> 2
<MEAN> 39
 -1.230549e+01 1.871395e-01 -1.087614e+00 -4.546392e-01 -2.050318e-01 -7.532616e-01 -1.633164e+00 -6.242644e-01 -5.443748e-03 9.405946e-03 -3.153289e-01 -6.763770e-01 1.914699e+01 4.559670e-01 -5.715303e-02 -1.388275e-01 5.424739e-01 -2.232511e-02 1.144948e-01 4.823880e-01 2.468119e-01 1.210865e-01 2.004478e-01 2.403396e-02 1.830775e-01 -2.477569e+00 1.222798e-01 -2.984646e-02 7.111220e-02 -1.980938e-01 4.572445e-02 -3.543320e-02 -7.756630e-02 -3.637490e-02 -2.041008e-02 -4.027961e-02 1.887545e-02 -2.810831e-02 2.057073e-01
<VARIANCE> 39
 4.747049e+01 1.221768e+01 1.799864e+01 1.546501e+01 1.163204e+01 1.311656e+01 2.211026e+01 1.939586e+01 1.087281e+01 1.321244e+01 1.266433e+01 1.517016e+01 2.048078e+02 5.038898e+00 1.475350e+00 2.446256e+00 2.227254e+00 1.359548e+00 1.478922e+00 3.062652e+00 1.872421e+00 1.287086e+00 1.360435e+00 1.238235e+00 1.719707e+00 6.586302e+00 5.715253e-01 2.169209e-01 3.109426e-01 3.032867e-01 2.731488e-01 2.459219e-01 4.194748e-01 3.199509e-01 2.342176e-01 2.671343e-01 2.317358e-01 3.289592e-01 1.275140e+00
<GCONST> 1.053927e+02
<STATE> 3
<MEAN> 39
 0.000000e+00 0.000000e+00 0.000000e+00 0.000000e+00 0.000000e+00 0.000000e+00 0.000000e+00 0.000000e+00 0.000000e+00 0.000000e+00 0.000000e+00 0.000000e+00 0.000000e+00 0.000000e+00 0.000000e+00 0.000000e+00 0.000000e+00 0.000000e+00 0.000000e+00 0.000000e+00 0.000000e+00 0.000000e+00 0.000000e+00 0.000000e+00 0.000000e+00 0.000000e+00 -7.732575e-02 1.641605e-02 -8.335691e-03 4.024317e-03 -4.330992e-03 -1.385391e-03 -4.132432e-03 2.235985e-03 -4.226614e-03 -2.039172e-03 3.781599e-03 6.150340e-05 6.031802e-02
<VARIANCE> 39
 1.000000e-02 1.000000e-02 1.000000e-02 1.000000e-02 1.000000e-02 1.000000e-02 1.000000e-02 1.000000e-02 1.000000e-02 1.000000e-02 1.000000e-02 1.000000e-02 1.000000e-02 1.000000e-02 1.000000e-02 1.000000e-02 1.000000e-02 1.000000e-02 1.000000e-02 1.000000e-02 1.000000e-02 1.000000e-02 1.000000e-02 1.000000e-02 1.000000e-02 1.000000e-02 6.528801e-02 1.000000e-02 1.000000e-02 1.000000e-02 1.000000e-02 1.000000e-02 1.000000e-02 1.000000e-02 1.000000e-02 1.000000e-02 1.000000e-02 1.000000e-02 4.531183e-02
<GCONST> -1.045372e+02
<STATE> 4
<MEAN> 39
 -1.035986e+01 1.182506e-01 5.270010e-01 3.881586e-01 -1.393261e-01 -2.466086e+00 -1.387700e+00 -1.664920e+00 -9.019262e-01 -1.411679e+00 2.325345e-01 -1.221406e-01 2.145749e+01 -4.854105e-01 3.287019e-02 3.315319e-01 -2.381541e-01 -2.331167e-02 -7.635176e-01 -5.592744e-01 -4.035961e-01 -2.222065e-01 -3.880472e-01 -2.365879e-01 -2.035463e-01 3.932317e+00 1.881110e-01 -5.138734e-02 1.848431e-02 -1.302115e-01 -2.646036e-02 -9.477465e-02 -1.272518e-01 -2.937511e-02 -5.301065e-02 -5.035274e-02 -7.708552e-02 -9.870373e-02 3.582344e-01
<VARIANCE> 39
 5.424653e+01 1.272402e+01 1.598806e+01 2.134059e+01 9.673418e+00 3.392291e+01 1.797277e+01 1.744950e+01 1.343749e+01 1.542869e+01 1.366174e+01 1.020753e+01 3.395103e+02 7.763965e+00 1.438373e+00 1.647944e+00 2.539250e+00 1.092462e+00 2.322531e+00 1.952515e+00 2.225862e+00 1.991066e+00 1.499632e+00 2.217733e+00 1.582863e+00 1.174736e+01 9.914879e-01 2.956134e-01 2.854314e-01 4.623635e-01 2.264767e-01 3.392452e-01 2.911720e-01 3.849731e-01 3.515019e-01 2.545819e-01 3.820650e-01 2.555870e-01 1.827863e+00
<GCONST> 1.106020e+02
<TRANSP> 5
 0.000000e+00 1.000000e+00 0.000000e+00 0.000000e+00 0.000000e+00
 0.000000e+00 8.909091e-01 1.090909e-01 0.000000e+00 0.000000e+00
 0.000000e+00 0.000000e+00 9.427208e-01 5.727924e-02 0.000000e+00
 0.000000e+00 0.000000e+00 0.000000e+00 8.620690e-01 1.379310e-01
 0.000000e+00 0.000000e+00 0.000000e+00 0.000000e+00 0.000000e+00
<ENDHMM>
