
~o
<STREAMINFO> 1 39
<VECSIZE> 39<NULLD><MFCC_D_A_0><DIAGC>
~h "mae"
<BEGINHMM>
<NUMSTATES> 5
<STATE> 2
<MEAN> 39
 -2.173696e-01 -6.259173e+00 -7.140825e-01 -6.257705e+00 8.423658e-01 -1.358807e+01 -1.239849e+01 -8.260763e+00 -8.315825e+00 -1.398487e+01 -8.545774e+00 -1.191985e+01 6.972851e+01 -1.920897e-01 -1.721073e+00 -1.827162e+00 -1.421107e+00 7.133723e-01 -6.995762e-02 -1.590614e-01 7.046305e-01 -6.415225e-01 -1.599268e+00 8.187656e-01 -1.478471e+00 2.899116e+00 -4.930182e-01 -1.758201e-01 -9.521159e-03 2.739876e-01 6.829463e-02 3.921726e-02 4.589654e-01 3.379119e-02 1.538592e-01 1.271086e-01 4.482449e-01 4.150289e-01 -5.741069e-01
<VARIANCE> 39
 1.957774e+01 4.790535e+01 8.179862e+01 4.062636e+01 4.238308e+01 2.585850e+01 3.818842e+01 2.175170e+01 1.576282e+01 9.801068e+01 3.500287e+01 3.289542e+01 5.026204e+01 3.097348e+00 2.393610e+00 4.378271e+00 4.290649e+00 1.993641e+00 1.372722e+00 2.675035e+00 2.766368e+00 3.420900e+00 9.455140e+00 4.238786e+00 2.545042e+00 2.758893e+00 4.409606e-01 7.239992e-01 1.188870e+00 8.147364e-01 4.327246e-01 3.968023e-01 3.071997e-01 8.148723e-01 7.999014e-01 1.840740e+00 7.694826e-01 2.983212e-01 2.456107e-01
<GCONST> 1.266649e+02
<STATE> 3
<MEAN> 39
 -9.636253e+00 -1.243673e+01 -5.945149e+00 -1.071316e+01 -8.601813e-02 -1.252303e+01 -5.946432e+00 -1.467657e+01 -1.583489e+01 -1.401651e+01 -5.955134e+00 -1.005666e+01 7.692683e+01 -2.828169e-01 4.362781e-01 4.863053e-01 -5.899574e-01 -6.628712e-01 6.128023e-01 4.108664e-01 -6.484612e-01 -4.818312e-02 6.125333e-01 -7.189026e-01 -1.101984e-01 -9.065846e-02 7.881872e-02 9.626322e-02 5.580055e-02 -6.494211e-02 2.617925e-03 9.519900e-02 -3.544834e-02 1.039982e-01 2.004514e-01 1.159776e-01 -1.695753e-02 -6.637668e-02 -6.031615e-02
<VARIANCE> 39
 1.920784e+01 2.131923e+01 1.957318e+01 2.040480e+01 3.500028e+01 5.932462e+01 9.208405e+00 4.518961e+01 1.668986e+01 9.241182e+01 2.128057e+01 3.670605e+01 4.829821e+00 3.397402e-01 5.567368e-01 7.171315e-01 1.035146e+00 1.164433e+00 5.686463e-01 9.424947e-01 1.956601e+00 3.557794e+00 1.999521e+00 1.163779e+00 1.861873e+00 4.563532e-02 3.810436e-02 9.627515e-02 1.300127e-01 1.732215e-01 1.978667e-01 7.005483e-02 1.849907e-01 2.270329e-01 4.273327e-01 3.716700e-01 3.817630e-01 2.585846e-01 1.102757e-02
<GCONST> 8.530000e+01
<STATE> 4
<MEAN> 39
 -7.945087e+00 -8.084257e+00 5.232504e+00 -1.542693e+01 -3.242312e+00 3.283998e+00 2.837355e+00 -7.654159e+00 -6.047131e+00 -7.559048e+00 -8.208755e+00 -1.316405e+01 6.738748e+01 -3.254024e-03 2.430170e-01 2.698252e-01 6.175237e-01 2.238411e-01 8.260273e-01 5.204946e-01 1.034420e+00 3.960570e-01 7.051488e-01 5.698425e-01 5.766876e-01 -2.416979e+00 -8.495838e-02 1.162704e-01 -9.575602e-02 2.626469e-01 -3.917757e-02 -1.499751e-01 -8.085119e-02 -4.690638e-02 -5.938431e-02 -8.222372e-02 -9.450762e-02 8.776280e-02 -2.885049e-01
<VARIANCE> 39
 7.834023e+00 2.538243e+01 3.270641e+01 2.758286e+01 1.593137e+01 5.160088e+01 2.757523e+01 3.269446e+01 1.540702e+01 4.189572e+01 2.267801e+01 3.628181e+01 1.095561e+02 4.053082e-01 3.176583e+00 1.919724e+00 2.838906e+00 1.394356e+00 2.373494e+00 1.519689e+00 1.079589e+00 1.519220e+00 2.075753e+00 2.626721e+00 6.142845e-01 5.322467e+00 9.029330e-02 4.471434e-01 2.177311e-01 4.710554e-01 1.996992e-01 4.162161e-01 2.874443e-01 2.010907e-01 3.225998e-01 4.619071e-01 5.121908e-01 2.453070e-01 5.716311e-01
<GCONST> 1.067463e+02
<TRANSP> 5
 0.000000e+00 1.000000e+00 0.000000e+00 0.000000e+00 0.000000e+00
 0.000000e+00 8.750000e-01 1.250000e-01 0.000000e+00 0.000000e+00
 0.000000e+00 0.000000e+00 9.347826e-01 6.521739e-02 0.000000e+00
 0.000000e+00 0.000000e+00 0.000000e+00 9.166667e-01 8.333333e-02
 0.000000e+00 0.000000e+00 0.000000e+00 0.000000e+00 0.000000e+00
<ENDHMM>
