~o
<STREAMINFO> 1 39
<VECSIZE> 39<NULLD><MFCC_D_A_0><DIAGC>
~h "migi"
<BEGINHMM>
<NUMSTATES> 5
<STATE> 2
<MEAN> 39
 -3.631938e+00 4.547806e+00 8.142292e+00 -1.224250e+01 5.932265e-01 -7.154850e+00 -2.153884e+01 -9.079496e+00 -7.147993e+00 -1.162436e+01 -8.045816e+00 -7.235735e+00 6.885480e+01 -2.292873e-01 6.139681e-01 1.215127e-01 -9.784631e-01 -6.555223e-02 -2.942106e-01 -8.146669e-01 -6.315946e-01 -1.214439e-01 -3.085681e-01 -2.614590e-01 -2.423600e-01 1.748750e+00 -3.142404e-01 -4.905373e-03 -1.859047e-01 2.860284e-01 3.051689e-02 9.245503e-02 3.365669e-01 1.078695e-01 2.342774e-01 1.755141e-01 2.189561e-01 9.489455e-02 -7.003881e-01
<VARIANCE> 39
 2.748679e+01 3.523364e+01 1.564625e+01 1.192371e+02 3.230453e+01 9.440207e+00 8.117714e+01 5.579905e+01 1.982186e+01 2.628965e+01 5.776740e+00 2.399266e+01 6.043671e+01 4.723522e+00 2.915230e+00 1.991686e+00 1.121825e+01 1.932924e+00 1.048689e+00 6.920060e+00 3.708123e+00 3.789932e+00 2.503990e+00 1.551745e+00 2.914143e+00 1.157645e+01 9.067995e-01 4.528534e-01 1.640211e-01 1.224934e+00 5.185917e-01 2.621832e-01 5.971656e-01 8.753386e-01 9.315986e-01 4.533239e-01 2.756960e-01 5.406117e-01 3.001980e-01
<GCONST> 1.222929e+02
<STATE> 3
<MEAN> 39
 -1.462805e+01 8.813993e+00 3.424978e+00 -6.378638e+00 8.480012e-01 -8.820462e+00 -1.234485e+01 -9.385469e+00 -4.874759e+00 -8.522598e+00 -4.148312e+00 -1.043522e+01 6.409979e+01 -3.178860e-01 3.553890e-01 1.060571e-01 -7.359096e-01 -1.812202e-01 -3.445274e-01 3.627457e-02 -1.163526e-01 -1.399381e-01 -1.131704e-01 -1.834555e-01 -1.784218e-01 3.416727e-01 2.942232e-01 4.341092e-02 2.397303e-01 -7.152256e-01 -1.368058e-01 -4.954308e-02 -4.741692e-01 -1.839188e-01 -1.704045e-01 -3.149686e-01 -1.554408e-01 1.639166e-01 2.822584e-01
<VARIANCE> 39
 4.849108e+01 4.137280e+01 1.897386e+01 2.831969e+01 1.259700e+01 2.513096e+01 2.637286e+01 2.297448e+01 3.375309e+01 2.476116e+01 3.206998e+01 5.755891e+00 5.382849e+01 1.043746e+01 6.221040e+00 3.462536e+00 6.701426e+00 2.139728e+00 2.885642e+00 7.399775e+00 5.387775e+00 4.500508e+00 5.033176e+00 7.734309e+00 8.677391e-01 1.104012e+01 1.980881e+00 1.426631e+00 7.537801e-01 5.915661e-01 3.058690e-01 5.756587e-01 8.700817e-01 9.887753e-01 1.210373e+00 6.163806e-01 1.568559e+00 2.339825e-01 2.000662e+00
<GCONST> 1.316557e+02
<STATE> 4
<MEAN> 39
 -8.444966e+00 8.744521e+00 1.355801e+01 -1.960043e+01 -2.172505e+00 -1.059634e+01 -1.977030e+01 -1.106754e+01 -6.082408e+00 -1.090292e+01 -2.850008e+00 -4.696154e+00 6.386437e+01 -3.393203e-02 -6.098565e-01 8.771196e-02 1.112191e+00 2.316071e-01 8.451642e-01 6.375808e-01 7.128102e-01 6.412147e-01 8.114684e-01 8.759180e-01 7.873460e-01 -2.835535e+00 -3.655784e-01 -2.287592e-01 -4.271691e-01 4.912142e-01 1.175874e-01 1.291507e-01 5.135516e-01 3.190892e-01 1.499666e-01 2.865264e-01 5.236173e-02 -8.376864e-02 -4.555195e-01
<VARIANCE> 39
 3.836732e+00 1.053483e+01 2.957110e+01 5.621724e+01 5.829363e+00 1.600568e+01 9.174822e+00 3.795180e+01 3.435135e+01 2.947929e+01 4.924478e+01 2.038202e+01 1.533372e+02 1.605972e+00 2.394432e+00 6.079376e+00 8.089001e+00 6.096079e-01 1.674906e+00 4.534145e+00 2.235864e+00 2.779396e+00 3.196800e+00 1.518420e+00 1.215539e+00 1.034243e+01 3.096312e-01 6.346692e-01 4.681774e-01 6.810724e-01 2.162433e-01 2.117703e-01 6.059766e-01 5.237618e-01 3.965809e-01 7.172493e-01 4.390258e-01 2.671004e-01 7.406614e-01
<GCONST> 1.140565e+02
<TRANSP> 5
 0.000000e+00 1.000000e+00 0.000000e+00 0.000000e+00 0.000000e+00
 0.000000e+00 9.302326e-01 6.976744e-02 0.000000e+00 0.000000e+00
 0.000000e+00 0.000000e+00 9.032258e-01 9.677420e-02 0.000000e+00
 0.000000e+00 0.000000e+00 0.000000e+00 9.230769e-01 7.692308e-02
 0.000000e+00 0.000000e+00 0.000000e+00 0.000000e+00 0.000000e+00
<ENDHMM>
